[ 0.27772917 -0.61506011  0.03625493  0.45562962  0.29195576 -0.09657418
 -0.33086469 -0.36279281]
[ 0.24753671 -0.72449043 -0.04805361  0.52726294 -0.22959275 -0.07065416
  0.0723745  -0.26567071]
[ 0.35313084 -0.47925707 -0.32138207  0.65274713 -0.30318312 -0.03563224
  0.05324739 -0.14220085]
[  2.81678549e-01  -5.54770929e-01  -2.29749702e-01   6.82452247e-01
  -3.02566326e-01   6.24564194e-07   5.25075252e-02  -7.54941230e-03]
[  2.81678769e-01  -5.54770881e-01  -2.29749970e-01   6.82452197e-01
  -3.02566143e-01   4.63618922e-07   5.25073094e-02  -7.55001772e-03]
[  3.63442412e-01  -4.47392529e-01  -3.27665223e-01   7.09315760e-01
  -2.05460537e-01   1.08009951e-06  -1.22457251e-01  -6.81047664e-03]
[  4.64879520e-01  -4.44550321e-01  -6.67629105e-01   3.71679544e-01
   3.24869918e-02   1.54134936e-06   3.33241849e-02  -1.48940374e-02]
[ 0.4446334  -0.4903677  -0.6304242   0.39556342  0.04323731 -0.06272411
 -0.00111032 -0.04615795]
[ 0.44463339 -0.49036779 -0.63042414  0.39556345  0.04323724 -0.06272383
 -0.00111033 -0.04615798]
